<?xml version="1.0"?>
<opencv_storage>
<stage7>
  <maxWeakCount>6</maxWeakCount>
  <stageThreshold>-1.3865901231765747e+00</stageThreshold>
  <weakClassifiers>
    <_>
      <internalNodes>
        0 -1 97166 2.1878027473576367e-04</internalNodes>
      <leafValues>
        -8.7654322385787964e-01 5.7894736528396606e-01</leafValues></_>
    <_>
      <internalNodes>
        0 -1 67825 6.3518797978758812e-03</internalNodes>
      <leafValues>
        -7.6489502191543579e-01 3.5107737779617310e-01</leafValues></_>
    <_>
      <internalNodes>
        0 -1 118980 -1.4106505550444126e-03</internalNodes>
      <leafValues>
        -7.3622572422027588e-01 3.1462749838829041e-01</leafValues></_>
    <_>
      <internalNodes>
        0 -1 19769 -3.5195901989936829e-02</internalNodes>
      <leafValues>
        3.3908921480178833e-01 -7.0854502916336060e-01</leafValues></_>
    <_>
      <internalNodes>
        0 -1 147986 2.4210610426962376e-03</internalNodes>
      <leafValues>
        -7.4687695503234863e-01 4.0002194046974182e-01</leafValues></_>
    <_>
      <internalNodes>
        0 -1 37894 4.3654676119331270e-05</internalNodes>
      <leafValues>
        -7.9889059066772461e-01 3.7674856185913086e-01</leafValues></_></weakClassifiers></stage7>
</opencv_storage>
