<?xml version="1.0"?>
<opencv_storage>
<stage3>
  <maxWeakCount>5</maxWeakCount>
  <stageThreshold>-1.8794137239456177e+00</stageThreshold>
  <weakClassifiers>
    <_>
      <internalNodes>
        0 -1 15782 -3.0791804194450378e-01</internalNodes>
      <leafValues>
        1.9117647409439087e-01 -9.4045174121856689e-01</leafValues></_>
    <_>
      <internalNodes>
        0 -1 6862 -2.7135662734508514e-02</internalNodes>
      <leafValues>
        1.7700082063674927e-01 -9.3424415588378906e-01</leafValues></_>
    <_>
      <internalNodes>
        0 -1 159697 1.1233261320739985e-03</internalNodes>
      <leafValues>
        -8.8874042034149170e-01 3.4145855903625488e-01</leafValues></_>
    <_>
      <internalNodes>
        0 -1 77712 -1.0995509102940559e-02</internalNodes>
      <leafValues>
        -7.3613601922988892e-01 5.1581323146820068e-01</leafValues></_>
    <_>
      <internalNodes>
        0 -1 77200 3.4895937889814377e-02</internalNodes>
      <leafValues>
        -9.5912027359008789e-01 3.8995966315269470e-01</leafValues></_></weakClassifiers></stage3>
</opencv_storage>
